{"sizes": [2, 4, 8, 1], "weights": [[[-0.5004840111611313, -0.13327766937988364], [-2.6711732304187894, -0.03553287014539088], [0.45354409314186894, -1.1663987363485162], [0.5900341655358318, 0.015426623870368235]], [[-0.2157865643882601, -1.1595157771128384, 0.8257760302820523, -0.45609662667954887], [-0.41240537338358013, -0.4082113462244191, 0.5172017048641747, 1.0176985280195232], [-0.21204310380411961, -1.189280480005109, 0.2624134705058258, -0.33022008917970336], [0.8699856522660357, 0.04695440666510545, 0.327878147034545, 0.5985723638591223], [0.191591234894279, 1.713972215929123, -0.9014979023778955, 0.08428617731653885], [-1.1110316189117533, 0.5435702119799476, -0.3164907402558349, 0.12796115067624117], [-0.4072498093479375, 0.6665457546590517, 1.1293325630401345, 0.22639041101780633], [0.008966735897301634, -0.3874622957366463, 1.6027820827529602, -1.2181564572245722]], [[0.6812409096910126, -0.1058585940790331, 0.5747309572700064, -1.0664484526596332, 1.4018954315581744, -0.5375950597226945, -1.340168319485149, -1.3727047289820251]]], "biases": [[[0.8183579124883724], [0.24698430652374426], [1.0911945561952077], [0.8413824425717893]], [[2.3055109983750706], [0.27902243383551895], [-0.22377928239855327], [1.2018838490424815], [1.2457674692757317], [0.3793210975024528], [1.79604775831903], [1.6206915509901954]], [[1.8262201009931134]]]}